digraph Tree {
node [shape=box] ;
0 [label="X[2] <= 0.5\ngini = 0.473\nsamples = 891\nvalue = [549, 342]"] ;
1 [label="X[1] <= 2.5\ngini = 0.383\nsamples = 314\nvalue = [81, 233]"] ;
0 -> 1 [labeldistance=2.5, labelangle=45, headlabel="True"] ;
2 [label="X[3] <= 2.5\ngini = 0.1\nsamples = 170\nvalue = [9, 161]"] ;
1 -> 2 ;
3 [label="X[5] <= 1.5\ngini = 0.5\nsamples = 2\nvalue = [1, 1]"] ;
2 -> 3 ;
4 [label="gini = 0.0\nsamples = 1\nvalue = [0, 1]"] ;
3 -> 4 ;
5 [label="gini = 0.0\nsamples = 1\nvalue = [1, 0]"] ;
3 -> 5 ;
6 [label="X[6] <= 28.856\ngini = 0.091\nsamples = 168\nvalue = [8, 160]"] ;
2 -> 6 ;
7 [label="X[6] <= 28.231\ngini = 0.182\nsamples = 69\nvalue = [7, 62]"] ;
6 -> 7 ;
8 [label="X[3] <= 56.0\ngini = 0.161\nsamples = 68\nvalue = [6, 62]"] ;
7 -> 8 ;
9 [label="X[0] <= 48.0\ngini = 0.14\nsamples = 66\nvalue = [5, 61]"] ;
8 -> 9 ;
10 [label="X[3] <= 41.0\ngini = 0.5\nsamples = 2\nvalue = [1, 1]"] ;
9 -> 10 ;
11 [label="gini = 0.0\nsamples = 1\nvalue = [1, 0]"] ;
10 -> 11 ;
12 [label="gini = 0.0\nsamples = 1\nvalue = [0, 1]"] ;
10 -> 12 ;
13 [label="X[0] <= 373.0\ngini = 0.117\nsamples = 64\nvalue = [4, 60]"] ;
9 -> 13 ;
14 [label="X[0] <= 352.5\ngini = 0.204\nsamples = 26\nvalue = [3, 23]"] ;
13 -> 14 ;
15 [label="X[3] <= 27.0\ngini = 0.147\nsamples = 25\nvalue = [2, 23]"] ;
14 -> 15 ;
16 [label="X[3] <= 25.0\ngini = 0.32\nsamples = 10\nvalue = [2, 8]"] ;
15 -> 16 ;
17 [label="X[3] <= 22.5\ngini = 0.198\nsamples = 9\nvalue = [1, 8]"] ;
16 -> 17 ;
18 [label="gini = 0.0\nsamples = 5\nvalue = [0, 5]"] ;
17 -> 18 ;
19 [label="X[0] <= 224.0\ngini = 0.375\nsamples = 4\nvalue = [1, 3]"] ;
17 -> 19 ;
20 [label="gini = 0.0\nsamples = 1\nvalue = [1, 0]"] ;
19 -> 20 ;
21 [label="gini = 0.0\nsamples = 3\nvalue = [0, 3]"] ;
19 -> 21 ;
22 [label="gini = 0.0\nsamples = 1\nvalue = [1, 0]"] ;
16 -> 22 ;
23 [label="gini = 0.0\nsamples = 15\nvalue = [0, 15]"] ;
15 -> 23 ;
24 [label="gini = 0.0\nsamples = 1\nvalue = [1, 0]"] ;
14 -> 24 ;
25 [label="X[0] <= 828.5\ngini = 0.051\nsamples = 38\nvalue = [1, 37]"] ;
13 -> 25 ;
26 [label="gini = 0.0\nsamples = 32\nvalue = [0, 32]"] ;
25 -> 26 ;
27 [label="X[0] <= 859.0\ngini = 0.278\nsamples = 6\nvalue = [1, 5]"] ;
25 -> 27 ;
28 [label="gini = 0.0\nsamples = 1\nvalue = [1, 0]"] ;
27 -> 28 ;
29 [label="gini = 0.0\nsamples = 5\nvalue = [0, 5]"] ;
27 -> 29 ;
30 [label="X[6] <= 18.525\ngini = 0.5\nsamples = 2\nvalue = [1, 1]"] ;
8 -> 30 ;
31 [label="gini = 0.0\nsamples = 1\nvalue = [1, 0]"] ;
30 -> 31 ;
32 [label="gini = 0.0\nsamples = 1\nvalue = [0, 1]"] ;
30 -> 32 ;
33 [label="gini = 0.0\nsamples = 1\nvalue = [1, 0]"] ;
7 -> 33 ;
34 [label="X[5] <= 1.5\ngini = 0.02\nsamples = 99\nvalue = [1, 98]"] ;
6 -> 34 ;
35 [label="gini = 0.0\nsamples = 84\nvalue = [0, 84]"] ;
34 -> 35 ;
36 [label="X[3] <= 24.5\ngini = 0.124\nsamples = 15\nvalue = [1, 14]"] ;
34 -> 36 ;
37 [label="gini = 0.0\nsamples = 10\nvalue = [0, 10]"] ;
36 -> 37 ;
38 [label="X[3] <= 28.0\ngini = 0.32\nsamples = 5\nvalue = [1, 4]"] ;
36 -> 38 ;
39 [label="gini = 0.0\nsamples = 1\nvalue = [1, 0]"] ;
38 -> 39 ;
40 [label="gini = 0.0\nsamples = 4\nvalue = [0, 4]"] ;
38 -> 40 ;
41 [label="X[6] <= 23.35\ngini = 0.5\nsamples = 144\nvalue = [72, 72]"] ;
1 -> 41 ;
42 [label="X[3] <= 36.5\ngini = 0.484\nsamples = 117\nvalue = [48, 69]"] ;
41 -> 42 ;
43 [label="X[0] <= 396.0\ngini = 0.472\nsamples = 110\nvalue = [42, 68]"] ;
42 -> 43 ;
44 [label="X[6] <= 8.44\ngini = 0.416\nsamples = 61\nvalue = [18, 43]"] ;
43 -> 44 ;
45 [label="X[3] <= 14.5\ngini = 0.278\nsamples = 30\nvalue = [5, 25]"] ;
44 -> 45 ;
46 [label="gini = 0.0\nsamples = 1\nvalue = [1, 0]"] ;
45 -> 46 ;
47 [label="X[3] <= 23.5\ngini = 0.238\nsamples = 29\nvalue = [4, 25]"] ;
45 -> 47 ;
48 [label="gini = 0.0\nsamples = 10\nvalue = [0, 10]"] ;
47 -> 48 ;
49 [label="X[3] <= 25.5\ngini = 0.332\nsamples = 19\nvalue = [4, 15]"] ;
47 -> 49 ;
50 [label="gini = 0.0\nsamples = 1\nvalue = [1, 0]"] ;
49 -> 50 ;
51 [label="X[0] <= 270.0\ngini = 0.278\nsamples = 18\nvalue = [3, 15]"] ;
49 -> 51 ;
52 [label="X[0] <= 226.5\ngini = 0.397\nsamples = 11\nvalue = [3, 8]"] ;
51 -> 52 ;
53 [label="X[0] <= 92.0\ngini = 0.198\nsamples = 9\nvalue = [1, 8]"] ;
52 -> 53 ;
54 [label="gini = 0.0\nsamples = 6\nvalue = [0, 6]"] ;
53 -> 54 ;
55 [label="X[0] <= 150.0\ngini = 0.444\nsamples = 3\nvalue = [1, 2]"] ;
53 -> 55 ;
56 [label="gini = 0.0\nsamples = 1\nvalue = [1, 0]"] ;
55 -> 56 ;
57 [label="gini = 0.0\nsamples = 2\nvalue = [0, 2]"] ;
55 -> 57 ;
58 [label="gini = 0.0\nsamples = 2\nvalue = [2, 0]"] ;
52 -> 58 ;
59 [label="gini = 0.0\nsamples = 7\nvalue = [0, 7]"] ;
51 -> 59 ;
60 [label="X[6] <= 10.798\ngini = 0.487\nsamples = 31\nvalue = [13, 18]"] ;
44 -> 60 ;
61 [label="gini = 0.0\nsamples = 4\nvalue = [4, 0]"] ;
60 -> 61 ;
62 [label="X[0] <= 142.0\ngini = 0.444\nsamples = 27\nvalue = [9, 18]"] ;
60 -> 62 ;
63 [label="X[6] <= 13.465\ngini = 0.497\nsamples = 13\nvalue = [7, 6]"] ;
62 -> 63 ;
64 [label="gini = 0.0\nsamples = 3\nvalue = [0, 3]"] ;
63 -> 64 ;
65 [label="X[6] <= 21.717\ngini = 0.42\nsamples = 10\nvalue = [7, 3]"] ;
63 -> 65 ;
66 [label="X[0] <= 15.0\ngini = 0.346\nsamples = 9\nvalue = [7, 2]"] ;
65 -> 66 ;
67 [label="gini = 0.0\nsamples = 1\nvalue = [0, 1]"] ;
66 -> 67 ;
68 [label="X[3] <= 32.0\ngini = 0.219\nsamples = 8\nvalue = [7, 1]"] ;
66 -> 68 ;
69 [label="gini = 0.0\nsamples = 7\nvalue = [7, 0]"] ;
68 -> 69 ;
70 [label="gini = 0.0\nsamples = 1\nvalue = [0, 1]"] ;
68 -> 70 ;
71 [label="gini = 0.0\nsamples = 1\nvalue = [0, 1]"] ;
65 -> 71 ;
72 [label="X[4] <= 2.5\ngini = 0.245\nsamples = 14\nvalue = [2, 12]"] ;
62 -> 72 ;
73 [label="X[6] <= 14.85\ngini = 0.142\nsamples = 13\nvalue = [1, 12]"] ;
72 -> 73 ;
74 [label="X[5] <= 0.5\ngini = 0.5\nsamples = 2\nvalue = [1, 1]"] ;
73 -> 74 ;
75 [label="gini = 0.0\nsamples = 1\nvalue = [1, 0]"] ;
74 -> 75 ;
76 [label="gini = 0.0\nsamples = 1\nvalue = [0, 1]"] ;
74 -> 76 ;
77 [label="gini = 0.0\nsamples = 11\nvalue = [0, 11]"] ;
73 -> 77 ;
78 [label="gini = 0.0\nsamples = 1\nvalue = [1, 0]"] ;
72 -> 78 ;
79 [label="X[3] <= 16.5\ngini = 0.5\nsamples = 49\nvalue = [24, 25]"] ;
43 -> 79 ;
80 [label="X[0] <= 842.0\ngini = 0.18\nsamples = 10\nvalue = [1, 9]"] ;
79 -> 80 ;
81 [label="gini = 0.0\nsamples = 8\nvalue = [0, 8]"] ;
80 -> 81 ;
82 [label="X[3] <= 12.0\ngini = 0.5\nsamples = 2\nvalue = [1, 1]"] ;
80 -> 82 ;
83 [label="gini = 0.0\nsamples = 1\nvalue = [1, 0]"] ;
82 -> 83 ;
84 [label="gini = 0.0\nsamples = 1\nvalue = [0, 1]"] ;
82 -> 84 ;
85 [label="X[0] <= 518.5\ngini = 0.484\nsamples = 39\nvalue = [23, 16]"] ;
79 -> 85 ;
86 [label="X[6] <= 15.25\ngini = 0.198\nsamples = 9\nvalue = [8, 1]"] ;
85 -> 86 ;
87 [label="gini = 0.0\nsamples = 8\nvalue = [8, 0]"] ;
86 -> 87 ;
88 [label="gini = 0.0\nsamples = 1\nvalue = [0, 1]"] ;
86 -> 88 ;
89 [label="X[6] <= 7.744\ngini = 0.5\nsamples = 30\nvalue = [15, 15]"] ;
85 -> 89 ;
90 [label="X[6] <= 7.123\ngini = 0.32\nsamples = 5\nvalue = [1, 4]"] ;
89 -> 90 ;
91 [label="gini = 0.0\nsamples = 1\nvalue = [1, 0]"] ;
90 -> 91 ;
92 [label="gini = 0.0\nsamples = 4\nvalue = [0, 4]"] ;
90 -> 92 ;
93 [label="X[6] <= 8.673\ngini = 0.493\nsamples = 25\nvalue = [14, 11]"] ;
89 -> 93 ;
94 [label="X[0] <= 667.5\ngini = 0.397\nsamples = 11\nvalue = [8, 3]"] ;
93 -> 94 ;
95 [label="X[6] <= 7.94\ngini = 0.5\nsamples = 6\nvalue = [3, 3]"] ;
94 -> 95 ;
96 [label="X[5] <= 1.0\ngini = 0.375\nsamples = 4\nvalue = [1, 3]"] ;
95 -> 96 ;
97 [label="gini = 0.0\nsamples = 3\nvalue = [0, 3]"] ;
96 -> 97 ;
98 [label="gini = 0.0\nsamples = 1\nvalue = [1, 0]"] ;
96 -> 98 ;
99 [label="gini = 0.0\nsamples = 2\nvalue = [2, 0]"] ;
95 -> 99 ;
100 [label="gini = 0.0\nsamples = 5\nvalue = [5, 0]"] ;
94 -> 100 ;
101 [label="X[6] <= 10.179\ngini = 0.49\nsamples = 14\nvalue = [6, 8]"] ;
93 -> 101 ;
102 [label="gini = 0.0\nsamples = 3\nvalue = [0, 3]"] ;
101 -> 102 ;
103 [label="X[0] <= 564.0\ngini = 0.496\nsamples = 11\nvalue = [6, 5]"] ;
101 -> 103 ;
104 [label="gini = 0.0\nsamples = 2\nvalue = [0, 2]"] ;
103 -> 104 ;
105 [label="X[0] <= 763.5\ngini = 0.444\nsamples = 9\nvalue = [6, 3]"] ;
103 -> 105 ;
106 [label="X[5] <= 0.5\ngini = 0.278\nsamples = 6\nvalue = [5, 1]"] ;
105 -> 106 ;
107 [label="X[6] <= 14.979\ngini = 0.444\nsamples = 3\nvalue = [2, 1]"] ;
106 -> 107 ;
108 [label="gini = 0.0\nsamples = 1\nvalue = [1, 0]"] ;
107 -> 108 ;
109 [label="X[6] <= 15.8\ngini = 0.5\nsamples = 2\nvalue = [1, 1]"] ;
107 -> 109 ;
110 [label="gini = 0.0\nsamples = 1\nvalue = [0, 1]"] ;
109 -> 110 ;
111 [label="gini = 0.0\nsamples = 1\nvalue = [1, 0]"] ;
109 -> 111 ;
112 [label="gini = 0.0\nsamples = 3\nvalue = [3, 0]"] ;
106 -> 112 ;
113 [label="X[5] <= 0.5\ngini = 0.444\nsamples = 3\nvalue = [1, 2]"] ;
105 -> 113 ;
114 [label="gini = 0.0\nsamples = 1\nvalue = [1, 0]"] ;
113 -> 114 ;
115 [label="gini = 0.0\nsamples = 2\nvalue = [0, 2]"] ;
113 -> 115 ;
116 [label="X[3] <= 55.0\ngini = 0.245\nsamples = 7\nvalue = [6, 1]"] ;
42 -> 116 ;
117 [label="gini = 0.0\nsamples = 6\nvalue = [6, 0]"] ;
116 -> 117 ;
118 [label="gini = 0.0\nsamples = 1\nvalue = [0, 1]"] ;
116 -> 118 ;
119 [label="X[0] <= 115.0\ngini = 0.198\nsamples = 27\nvalue = [24, 3]"] ;
41 -> 119 ;
120 [label="X[3] <= 22.0\ngini = 0.444\nsamples = 3\nvalue = [1, 2]"] ;
119 -> 120 ;
121 [label="gini = 0.0\nsamples = 1\nvalue = [1, 0]"] ;
120 -> 121 ;
122 [label="gini = 0.0\nsamples = 2\nvalue = [0, 2]"] ;
120 -> 122 ;
123 [label="X[3] <= 5.5\ngini = 0.08\nsamples = 24\nvalue = [23, 1]"] ;
119 -> 123 ;
124 [label="X[3] <= 3.5\ngini = 0.444\nsamples = 3\nvalue = [2, 1]"] ;
123 -> 124 ;
125 [label="gini = 0.0\nsamples = 2\nvalue = [2, 0]"] ;
124 -> 125 ;
126 [label="gini = 0.0\nsamples = 1\nvalue = [0, 1]"] ;
124 -> 126 ;
127 [label="gini = 0.0\nsamples = 21\nvalue = [21, 0]"] ;
123 -> 127 ;
128 [label="X[3] <= 6.5\ngini = 0.306\nsamples = 577\nvalue = [468, 109]"] ;
0 -> 128 [labeldistance=2.5, labelangle=-45, headlabel="False"] ;
129 [label="X[4] <= 2.5\ngini = 0.444\nsamples = 24\nvalue = [8, 16]"] ;
128 -> 129 ;
130 [label="gini = 0.0\nsamples = 15\nvalue = [0, 15]"] ;
129 -> 130 ;
131 [label="X[0] <= 217.0\ngini = 0.198\nsamples = 9\nvalue = [8, 1]"] ;
129 -> 131 ;
132 [label="gini = 0.0\nsamples = 5\nvalue = [5, 0]"] ;
131 -> 132 ;
133 [label="X[0] <= 324.5\ngini = 0.375\nsamples = 4\nvalue = [3, 1]"] ;
131 -> 133 ;
134 [label="gini = 0.0\nsamples = 1\nvalue = [0, 1]"] ;
133 -> 134 ;
135 [label="gini = 0.0\nsamples = 3\nvalue = [3, 0]"] ;
133 -> 135 ;
136 [label="X[1] <= 1.5\ngini = 0.28\nsamples = 553\nvalue = [460, 93]"] ;
128 -> 136 ;
137 [label="X[0] <= 565.5\ngini = 0.46\nsamples = 120\nvalue = [77, 43]"] ;
136 -> 137 ;
138 [label="X[3] <= 53.0\ngini = 0.382\nsamples = 74\nvalue = [55, 19]"] ;
137 -> 138 ;
139 [label="X[0] <= 384.5\ngini = 0.437\nsamples = 59\nvalue = [40, 19]"] ;
138 -> 139 ;
140 [label="X[0] <= 26.0\ngini = 0.355\nsamples = 39\nvalue = [30, 9]"] ;
139 -> 140 ;
141 [label="gini = 0.0\nsamples = 1\nvalue = [0, 1]"] ;
140 -> 141 ;
142 [label="X[6] <= 64.979\ngini = 0.332\nsamples = 38\nvalue = [30, 8]"] ;
140 -> 142 ;
143 [label="X[3] <= 26.5\ngini = 0.403\nsamples = 25\nvalue = [18, 7]"] ;
142 -> 143 ;
144 [label="gini = 0.0\nsamples = 2\nvalue = [0, 2]"] ;
143 -> 144 ;
145 [label="X[0] <= 187.0\ngini = 0.34\nsamples = 23\nvalue = [18, 5]"] ;
143 -> 145 ;
146 [label="X[0] <= 60.5\ngini = 0.165\nsamples = 11\nvalue = [10, 1]"] ;
145 -> 146 ;
147 [label="X[3] <= 34.0\ngini = 0.444\nsamples = 3\nvalue = [2, 1]"] ;
146 -> 147 ;
148 [label="gini = 0.0\nsamples = 1\nvalue = [0, 1]"] ;
147 -> 148 ;
149 [label="gini = 0.0\nsamples = 2\nvalue = [2, 0]"] ;
147 -> 149 ;
150 [label="gini = 0.0\nsamples = 8\nvalue = [8, 0]"] ;
146 -> 150 ;
151 [label="X[0] <= 256.5\ngini = 0.444\nsamples = 12\nvalue = [8, 4]"] ;
145 -> 151 ;
152 [label="gini = 0.0\nsamples = 3\nvalue = [0, 3]"] ;
151 -> 152 ;
153 [label="X[6] <= 30.1\ngini = 0.198\nsamples = 9\nvalue = [8, 1]"] ;
151 -> 153 ;
154 [label="gini = 0.0\nsamples = 5\nvalue = [5, 0]"] ;
153 -> 154 ;
155 [label="X[6] <= 30.75\ngini = 0.375\nsamples = 4\nvalue = [3, 1]"] ;
153 -> 155 ;
156 [label="gini = 0.0\nsamples = 1\nvalue = [0, 1]"] ;
155 -> 156 ;
157 [label="gini = 0.0\nsamples = 3\nvalue = [3, 0]"] ;
155 -> 157 ;
158 [label="X[3] <= 33.5\ngini = 0.142\nsamples = 13\nvalue = [12, 1]"] ;
142 -> 158 ;
159 [label="gini = 0.0\nsamples = 8\nvalue = [8, 0]"] ;
158 -> 159 ;
160 [label="X[3] <= 41.0\ngini = 0.32\nsamples = 5\nvalue = [4, 1]"] ;
158 -> 160 ;
161 [label="X[6] <= 121.731\ngini = 0.5\nsamples = 2\nvalue = [1, 1]"] ;
160 -> 161 ;
162 [label="gini = 0.0\nsamples = 1\nvalue = [0, 1]"] ;
161 -> 162 ;
163 [label="gini = 0.0\nsamples = 1\nvalue = [1, 0]"] ;
161 -> 163 ;
164 [label="gini = 0.0\nsamples = 3\nvalue = [3, 0]"] ;
160 -> 164 ;
165 [label="X[0] <= 514.5\ngini = 0.5\nsamples = 20\nvalue = [10, 10]"] ;
139 -> 165 ;
166 [label="X[6] <= 27.15\ngini = 0.459\nsamples = 14\nvalue = [5, 9]"] ;
165 -> 166 ;
167 [label="gini = 0.0\nsamples = 5\nvalue = [0, 5]"] ;
166 -> 167 ;
168 [label="X[6] <= 72.502\ngini = 0.494\nsamples = 9\nvalue = [5, 4]"] ;
166 -> 168 ;
169 [label="X[3] <= 51.0\ngini = 0.32\nsamples = 5\nvalue = [4, 1]"] ;
168 -> 169 ;
170 [label="gini = 0.0\nsamples = 4\nvalue = [4, 0]"] ;
169 -> 170 ;
171 [label="gini = 0.0\nsamples = 1\nvalue = [0, 1]"] ;
169 -> 171 ;
172 [label="X[3] <= 21.5\ngini = 0.375\nsamples = 4\nvalue = [1, 3]"] ;
168 -> 172 ;
173 [label="gini = 0.0\nsamples = 1\nvalue = [1, 0]"] ;
172 -> 173 ;
174 [label="gini = 0.0\nsamples = 3\nvalue = [0, 3]"] ;
172 -> 174 ;
175 [label="X[3] <= 22.5\ngini = 0.278\nsamples = 6\nvalue = [5, 1]"] ;
165 -> 175 ;
176 [label="gini = 0.0\nsamples = 1\nvalue = [0, 1]"] ;
175 -> 176 ;
177 [label="gini = 0.0\nsamples = 5\nvalue = [5, 0]"] ;
175 -> 177 ;
178 [label="gini = 0.0\nsamples = 15\nvalue = [15, 0]"] ;
138 -> 178 ;
179 [label="X[6] <= 25.938\ngini = 0.499\nsamples = 46\nvalue = [22, 24]"] ;
137 -> 179 ;
180 [label="gini = 0.0\nsamples = 6\nvalue = [6, 0]"] ;
179 -> 180 ;
181 [label="X[0] <= 741.5\ngini = 0.48\nsamples = 40\nvalue = [16, 24]"] ;
179 -> 181 ;
182 [label="X[3] <= 57.0\ngini = 0.408\nsamples = 28\nvalue = [8, 20]"] ;
181 -> 182 ;
183 [label="X[0] <= 604.0\ngini = 0.34\nsamples = 23\nvalue = [5, 18]"] ;
182 -> 183 ;
184 [label="X[3] <= 32.0\ngini = 0.5\nsamples = 4\nvalue = [2, 2]"] ;
183 -> 184 ;
185 [label="gini = 0.0\nsamples = 1\nvalue = [1, 0]"] ;
184 -> 185 ;
186 [label="X[0] <= 578.5\ngini = 0.444\nsamples = 3\nvalue = [1, 2]"] ;
184 -> 186 ;
187 [label="gini = 0.0\nsamples = 1\nvalue = [0, 1]"] ;
186 -> 187 ;
188 [label="X[6] <= 48.527\ngini = 0.5\nsamples = 2\nvalue = [1, 1]"] ;
186 -> 188 ;
189 [label="gini = 0.0\nsamples = 1\nvalue = [1, 0]"] ;
188 -> 189 ;
190 [label="gini = 0.0\nsamples = 1\nvalue = [0, 1]"] ;
188 -> 190 ;
191 [label="X[0] <= 666.5\ngini = 0.266\nsamples = 19\nvalue = [3, 16]"] ;
183 -> 191 ;
192 [label="gini = 0.0\nsamples = 7\nvalue = [0, 7]"] ;
191 -> 192 ;
193 [label="X[3] <= 48.5\ngini = 0.375\nsamples = 12\nvalue = [3, 9]"] ;
191 -> 193 ;
194 [label="X[0] <= 676.0\ngini = 0.298\nsamples = 11\nvalue = [2, 9]"] ;
193 -> 194 ;
195 [label="gini = 0.0\nsamples = 1\nvalue = [1, 0]"] ;
194 -> 195 ;
196 [label="X[6] <= 28.275\ngini = 0.18\nsamples = 10\nvalue = [1, 9]"] ;
194 -> 196 ;
197 [label="X[6] <= 26.419\ngini = 0.444\nsamples = 3\nvalue = [1, 2]"] ;
196 -> 197 ;
198 [label="gini = 0.0\nsamples = 2\nvalue = [0, 2]"] ;
197 -> 198 ;
199 [label="gini = 0.0\nsamples = 1\nvalue = [1, 0]"] ;
197 -> 199 ;
200 [label="gini = 0.0\nsamples = 7\nvalue = [0, 7]"] ;
196 -> 200 ;
201 [label="gini = 0.0\nsamples = 1\nvalue = [1, 0]"] ;
193 -> 201 ;
202 [label="X[0] <= 645.5\ngini = 0.48\nsamples = 5\nvalue = [3, 2]"] ;
182 -> 202 ;
203 [label="X[4] <= 0.5\ngini = 0.444\nsamples = 3\nvalue = [1, 2]"] ;
202 -> 203 ;
204 [label="X[0] <= 628.5\ngini = 0.5\nsamples = 2\nvalue = [1, 1]"] ;
203 -> 204 ;
205 [label="gini = 0.0\nsamples = 1\nvalue = [1, 0]"] ;
204 -> 205 ;
206 [label="gini = 0.0\nsamples = 1\nvalue = [0, 1]"] ;
204 -> 206 ;
207 [label="gini = 0.0\nsamples = 1\nvalue = [0, 1]"] ;
203 -> 207 ;
208 [label="gini = 0.0\nsamples = 2\nvalue = [2, 0]"] ;
202 -> 208 ;
209 [label="X[0] <= 798.5\ngini = 0.444\nsamples = 12\nvalue = [8, 4]"] ;
181 -> 209 ;
210 [label="gini = 0.0\nsamples = 7\nvalue = [7, 0]"] ;
209 -> 210 ;
211 [label="X[3] <= 29.5\ngini = 0.32\nsamples = 5\nvalue = [1, 4]"] ;
209 -> 211 ;
212 [label="gini = 0.0\nsamples = 3\nvalue = [0, 3]"] ;
211 -> 212 ;
213 [label="X[6] <= 38.523\ngini = 0.5\nsamples = 2\nvalue = [1, 1]"] ;
211 -> 213 ;
214 [label="gini = 0.0\nsamples = 1\nvalue = [0, 1]"] ;
213 -> 214 ;
215 [label="gini = 0.0\nsamples = 1\nvalue = [1, 0]"] ;
213 -> 215 ;
216 [label="X[6] <= 51.698\ngini = 0.204\nsamples = 433\nvalue = [383, 50]"] ;
136 -> 216 ;
217 [label="X[3] <= 13.0\ngini = 0.193\nsamples = 417\nvalue = [372, 45]"] ;
216 -> 217 ;
218 [label="X[4] <= 2.0\ngini = 0.444\nsamples = 12\nvalue = [8, 4]"] ;
217 -> 218 ;
219 [label="X[0] <= 641.0\ngini = 0.32\nsamples = 5\nvalue = [1, 4]"] ;
218 -> 219 ;
220 [label="gini = 0.0\nsamples = 4\nvalue = [0, 4]"] ;
219 -> 220 ;
221 [label="gini = 0.0\nsamples = 1\nvalue = [1, 0]"] ;
219 -> 221 ;
222 [label="gini = 0.0\nsamples = 7\nvalue = [7, 0]"] ;
218 -> 222 ;
223 [label="X[0] <= 581.5\ngini = 0.182\nsamples = 405\nvalue = [364, 41]"] ;
217 -> 223 ;
224 [label="X[0] <= 569.5\ngini = 0.219\nsamples = 255\nvalue = [223, 32]"] ;
223 -> 224 ;
225 [label="X[3] <= 45.25\ngini = 0.205\nsamples = 250\nvalue = [221, 29]"] ;
224 -> 225 ;
226 [label="X[3] <= 43.5\ngini = 0.217\nsamples = 234\nvalue = [205, 29]"] ;
225 -> 226 ;
227 [label="X[0] <= 37.5\ngini = 0.208\nsamples = 229\nvalue = [202, 27]"] ;
226 -> 227 ;
228 [label="X[0] <= 16.0\ngini = 0.397\nsamples = 11\nvalue = [8, 3]"] ;
227 -> 228 ;
229 [label="gini = 0.0\nsamples = 5\nvalue = [5, 0]"] ;
228 -> 229 ;
230 [label="X[3] <= 34.5\ngini = 0.5\nsamples = 6\nvalue = [3, 3]"] ;
228 -> 230 ;
231 [label="X[1] <= 2.5\ngini = 0.48\nsamples = 5\nvalue = [2, 3]"] ;
230 -> 231 ;
232 [label="gini = 0.0\nsamples = 2\nvalue = [0, 2]"] ;
231 -> 232 ;
233 [label="X[0] <= 33.5\ngini = 0.444\nsamples = 3\nvalue = [2, 1]"] ;
231 -> 233 ;
234 [label="gini = 0.0\nsamples = 2\nvalue = [2, 0]"] ;
233 -> 234 ;
235 [label="gini = 0.0\nsamples = 1\nvalue = [0, 1]"] ;
233 -> 235 ;
236 [label="gini = 0.0\nsamples = 1\nvalue = [1, 0]"] ;
230 -> 236 ;
237 [label="X[0] <= 541.5\ngini = 0.196\nsamples = 218\nvalue = [194, 24]"] ;
227 -> 237 ;
238 [label="X[0] <= 302.5\ngini = 0.184\nsamples = 205\nvalue = [184, 21]"] ;
237 -> 238 ;
239 [label="X[0] <= 267.5\ngini = 0.234\nsamples = 111\nvalue = [96, 15]"] ;
238 -> 239 ;
240 [label="X[3] <= 29.5\ngini = 0.168\nsamples = 97\nvalue = [88, 9]"] ;
239 -> 240 ;
241 [label="X[0] <= 227.5\ngini = 0.219\nsamples = 72\nvalue = [63, 9]"] ;
240 -> 241 ;
242 [label="X[0] <= 203.0\ngini = 0.248\nsamples = 62\nvalue = [53, 9]"] ;
241 -> 242 ;
243 [label="X[6] <= 7.798\ngini = 0.174\nsamples = 52\nvalue = [47, 5]"] ;
242 -> 243 ;
244 [label="X[6] <= 7.762\ngini = 0.375\nsamples = 12\nvalue = [9, 3]"] ;
243 -> 244 ;
245 [label="X[6] <= 7.185\ngini = 0.198\nsamples = 9\nvalue = [8, 1]"] ;
244 -> 245 ;
246 [label="X[6] <= 7.096\ngini = 0.444\nsamples = 3\nvalue = [2, 1]"] ;
245 -> 246 ;
247 [label="gini = 0.0\nsamples = 2\nvalue = [2, 0]"] ;
246 -> 247 ;
248 [label="gini = 0.0\nsamples = 1\nvalue = [0, 1]"] ;
246 -> 248 ;
249 [label="gini = 0.0\nsamples = 6\nvalue = [6, 0]"] ;
245 -> 249 ;
250 [label="X[0] <= 155.0\ngini = 0.444\nsamples = 3\nvalue = [1, 2]"] ;
244 -> 250 ;
251 [label="gini = 0.0\nsamples = 2\nvalue = [0, 2]"] ;
250 -> 251 ;
252 [label="gini = 0.0\nsamples = 1\nvalue = [1, 0]"] ;
250 -> 252 ;
253 [label="X[3] <= 28.5\ngini = 0.095\nsamples = 40\nvalue = [38, 2]"] ;
243 -> 253 ;
254 [label="X[5] <= 0.5\ngini = 0.053\nsamples = 37\nvalue = [36, 1]"] ;
253 -> 254 ;
255 [label="gini = 0.0\nsamples = 31\nvalue = [31, 0]"] ;
254 -> 255 ;
256 [label="X[0] <= 76.5\ngini = 0.278\nsamples = 6\nvalue = [5, 1]"] ;
254 -> 256 ;
257 [label="gini = 0.0\nsamples = 1\nvalue = [0, 1]"] ;
256 -> 257 ;
258 [label="gini = 0.0\nsamples = 5\nvalue = [5, 0]"] ;
256 -> 258 ;
259 [label="X[0] <= 86.5\ngini = 0.444\nsamples = 3\nvalue = [2, 1]"] ;
253 -> 259 ;
260 [label="gini = 0.0\nsamples = 1\nvalue = [0, 1]"] ;
259 -> 260 ;
261 [label="gini = 0.0\nsamples = 2\nvalue = [2, 0]"] ;
259 -> 261 ;
262 [label="X[3] <= 20.5\ngini = 0.48\nsamples = 10\nvalue = [6, 4]"] ;
242 -> 262 ;
263 [label="gini = 0.0\nsamples = 3\nvalue = [0, 3]"] ;
262 -> 263 ;
264 [label="X[0] <= 209.5\ngini = 0.245\nsamples = 7\nvalue = [6, 1]"] ;
262 -> 264 ;
265 [label="gini = 0.0\nsamples = 1\nvalue = [0, 1]"] ;
264 -> 265 ;
266 [label="gini = 0.0\nsamples = 6\nvalue = [6, 0]"] ;
264 -> 266 ;
267 [label="gini = 0.0\nsamples = 10\nvalue = [10, 0]"] ;
241 -> 267 ;
268 [label="gini = 0.0\nsamples = 25\nvalue = [25, 0]"] ;
240 -> 268 ;
269 [label="X[0] <= 275.0\ngini = 0.49\nsamples = 14\nvalue = [8, 6]"] ;
239 -> 269 ;
270 [label="gini = 0.0\nsamples = 2\nvalue = [0, 2]"] ;
269 -> 270 ;
271 [label="X[6] <= 12.938\ngini = 0.444\nsamples = 12\nvalue = [8, 4]"] ;
269 -> 271 ;
272 [label="X[6] <= 7.973\ngini = 0.32\nsamples = 10\nvalue = [8, 2]"] ;
271 -> 272 ;
273 [label="gini = 0.0\nsamples = 5\nvalue = [5, 0]"] ;
272 -> 273 ;
274 [label="X[3] <= 31.5\ngini = 0.48\nsamples = 5\nvalue = [3, 2]"] ;
272 -> 274 ;
275 [label="X[0] <= 283.5\ngini = 0.444\nsamples = 3\nvalue = [1, 2]"] ;
274 -> 275 ;
276 [label="gini = 0.0\nsamples = 1\nvalue = [1, 0]"] ;
275 -> 276 ;
277 [label="gini = 0.0\nsamples = 2\nvalue = [0, 2]"] ;
275 -> 277 ;
278 [label="gini = 0.0\nsamples = 2\nvalue = [2, 0]"] ;
274 -> 278 ;
279 [label="gini = 0.0\nsamples = 2\nvalue = [0, 2]"] ;
271 -> 279 ;
280 [label="X[3] <= 28.5\ngini = 0.12\nsamples = 94\nvalue = [88, 6]"] ;
238 -> 280 ;
281 [label="X[6] <= 7.785\ngini = 0.058\nsamples = 67\nvalue = [65, 2]"] ;
280 -> 281 ;
282 [label="gini = 0.0\nsamples = 28\nvalue = [28, 0]"] ;
281 -> 282 ;
283 [label="X[6] <= 7.846\ngini = 0.097\nsamples = 39\nvalue = [37, 2]"] ;
281 -> 283 ;
284 [label="X[0] <= 394.0\ngini = 0.444\nsamples = 3\nvalue = [2, 1]"] ;
283 -> 284 ;
285 [label="gini = 0.0\nsamples = 1\nvalue = [0, 1]"] ;
284 -> 285 ;
286 [label="gini = 0.0\nsamples = 2\nvalue = [2, 0]"] ;
284 -> 286 ;
287 [label="X[0] <= 443.5\ngini = 0.054\nsamples = 36\nvalue = [35, 1]"] ;
283 -> 287 ;
288 [label="gini = 0.0\nsamples = 21\nvalue = [21, 0]"] ;
287 -> 288 ;
289 [label="X[0] <= 448.5\ngini = 0.124\nsamples = 15\nvalue = [14, 1]"] ;
287 -> 289 ;
290 [label="gini = 0.0\nsamples = 1\nvalue = [0, 1]"] ;
289 -> 290 ;
291 [label="gini = 0.0\nsamples = 14\nvalue = [14, 0]"] ;
289 -> 291 ;
292 [label="X[6] <= 8.356\ngini = 0.252\nsamples = 27\nvalue = [23, 4]"] ;
280 -> 292 ;
293 [label="X[6] <= 7.5\ngini = 0.391\nsamples = 15\nvalue = [11, 4]"] ;
292 -> 293 ;
294 [label="gini = 0.0\nsamples = 4\nvalue = [4, 0]"] ;
293 -> 294 ;
295 [label="X[0] <= 515.5\ngini = 0.463\nsamples = 11\nvalue = [7, 4]"] ;
293 -> 295 ;
296 [label="X[6] <= 7.813\ngini = 0.5\nsamples = 8\nvalue = [4, 4]"] ;
295 -> 296 ;
297 [label="gini = 0.0\nsamples = 1\nvalue = [0, 1]"] ;
296 -> 297 ;
298 [label="X[0] <= 459.0\ngini = 0.49\nsamples = 7\nvalue = [4, 3]"] ;
296 -> 298 ;
299 [label="X[0] <= 426.5\ngini = 0.48\nsamples = 5\nvalue = [2, 3]"] ;
298 -> 299 ;
300 [label="X[3] <= 35.5\ngini = 0.444\nsamples = 3\nvalue = [2, 1]"] ;
299 -> 300 ;
301 [label="gini = 0.0\nsamples = 2\nvalue = [2, 0]"] ;
300 -> 301 ;
302 [label="gini = 0.0\nsamples = 1\nvalue = [0, 1]"] ;
300 -> 302 ;
303 [label="gini = 0.0\nsamples = 2\nvalue = [0, 2]"] ;
299 -> 303 ;
304 [label="gini = 0.0\nsamples = 2\nvalue = [2, 0]"] ;
298 -> 304 ;
305 [label="gini = 0.0\nsamples = 3\nvalue = [3, 0]"] ;
295 -> 305 ;
306 [label="gini = 0.0\nsamples = 12\nvalue = [12, 0]"] ;
292 -> 306 ;
307 [label="X[0] <= 548.5\ngini = 0.355\nsamples = 13\nvalue = [10, 3]"] ;
237 -> 307 ;
308 [label="gini = 0.0\nsamples = 2\nvalue = [0, 2]"] ;
307 -> 308 ;
309 [label="X[6] <= 7.227\ngini = 0.165\nsamples = 11\nvalue = [10, 1]"] ;
307 -> 309 ;
310 [label="gini = 0.0\nsamples = 1\nvalue = [0, 1]"] ;
309 -> 310 ;
311 [label="gini = 0.0\nsamples = 10\nvalue = [10, 0]"] ;
309 -> 311 ;
312 [label="X[0] <= 288.0\ngini = 0.48\nsamples = 5\nvalue = [3, 2]"] ;
226 -> 312 ;
313 [label="gini = 0.0\nsamples = 3\nvalue = [3, 0]"] ;
312 -> 313 ;
314 [label="gini = 0.0\nsamples = 2\nvalue = [0, 2]"] ;
312 -> 314 ;
315 [label="gini = 0.0\nsamples = 16\nvalue = [16, 0]"] ;
225 -> 315 ;
316 [label="X[3] <= 25.5\ngini = 0.48\nsamples = 5\nvalue = [2, 3]"] ;
224 -> 316 ;
317 [label="gini = 0.0\nsamples = 2\nvalue = [2, 0]"] ;
316 -> 317 ;
318 [label="gini = 0.0\nsamples = 3\nvalue = [0, 3]"] ;
316 -> 318 ;
319 [label="X[3] <= 31.5\ngini = 0.113\nsamples = 150\nvalue = [141, 9]"] ;
223 -> 319 ;
320 [label="X[3] <= 30.75\ngini = 0.158\nsamples = 104\nvalue = [95, 9]"] ;
319 -> 320 ;
321 [label="X[5] <= 0.5\ngini = 0.133\nsamples = 98\nvalue = [91, 7]"] ;
320 -> 321 ;
322 [label="X[6] <= 7.012\ngini = 0.105\nsamples = 90\nvalue = [85, 5]"] ;
321 -> 322 ;
323 [label="X[6] <= 6.962\ngini = 0.375\nsamples = 4\nvalue = [3, 1]"] ;
322 -> 323 ;
324 [label="gini = 0.0\nsamples = 3\nvalue = [3, 0]"] ;
323 -> 324 ;
325 [label="gini = 0.0\nsamples = 1\nvalue = [0, 1]"] ;
323 -> 325 ;
326 [label="X[6] <= 8.688\ngini = 0.089\nsamples = 86\nvalue = [82, 4]"] ;
322 -> 326 ;
327 [label="X[4] <= 0.5\ngini = 0.128\nsamples = 58\nvalue = [54, 4]"] ;
326 -> 327 ;
328 [label="X[0] <= 760.0\ngini = 0.103\nsamples = 55\nvalue = [52, 3]"] ;
327 -> 328 ;
329 [label="gini = 0.0\nsamples = 28\nvalue = [28, 0]"] ;
328 -> 329 ;
330 [label="X[0] <= 764.0\ngini = 0.198\nsamples = 27\nvalue = [24, 3]"] ;
328 -> 330 ;
331 [label="gini = 0.0\nsamples = 1\nvalue = [0, 1]"] ;
330 -> 331 ;
332 [label="X[6] <= 8.481\ngini = 0.142\nsamples = 26\nvalue = [24, 2]"] ;
330 -> 332 ;
333 [label="X[3] <= 27.0\ngini = 0.083\nsamples = 23\nvalue = [22, 1]"] ;
332 -> 333 ;
334 [label="gini = 0.0\nsamples = 12\nvalue = [12, 0]"] ;
333 -> 334 ;
335 [label="X[0] <= 822.0\ngini = 0.165\nsamples = 11\nvalue = [10, 1]"] ;
333 -> 335 ;
336 [label="gini = 0.0\nsamples = 6\nvalue = [6, 0]"] ;
335 -> 336 ;
337 [label="X[0] <= 831.0\ngini = 0.32\nsamples = 5\nvalue = [4, 1]"] ;
335 -> 337 ;
338 [label="gini = 0.0\nsamples = 1\nvalue = [0, 1]"] ;
337 -> 338 ;
339 [label="gini = 0.0\nsamples = 4\nvalue = [4, 0]"] ;
337 -> 339 ;
340 [label="X[3] <= 24.0\ngini = 0.444\nsamples = 3\nvalue = [2, 1]"] ;
332 -> 340 ;
341 [label="gini = 0.0\nsamples = 2\nvalue = [2, 0]"] ;
340 -> 341 ;
342 [label="gini = 0.0\nsamples = 1\nvalue = [0, 1]"] ;
340 -> 342 ;
343 [label="X[0] <= 685.0\ngini = 0.444\nsamples = 3\nvalue = [2, 1]"] ;
327 -> 343 ;
344 [label="gini = 0.0\nsamples = 1\nvalue = [0, 1]"] ;
343 -> 344 ;
345 [label="gini = 0.0\nsamples = 2\nvalue = [2, 0]"] ;
343 -> 345 ;
346 [label="gini = 0.0\nsamples = 28\nvalue = [28, 0]"] ;
326 -> 346 ;
347 [label="X[6] <= 17.996\ngini = 0.375\nsamples = 8\nvalue = [6, 2]"] ;
321 -> 347 ;
348 [label="gini = 0.0\nsamples = 2\nvalue = [0, 2]"] ;
347 -> 348 ;
349 [label="gini = 0.0\nsamples = 6\nvalue = [6, 0]"] ;
347 -> 349 ;
350 [label="X[0] <= 747.5\ngini = 0.444\nsamples = 6\nvalue = [4, 2]"] ;
320 -> 350 ;
351 [label="X[4] <= 0.5\ngini = 0.444\nsamples = 3\nvalue = [1, 2]"] ;
350 -> 351 ;
352 [label="gini = 0.0\nsamples = 2\nvalue = [0, 2]"] ;
351 -> 352 ;
353 [label="gini = 0.0\nsamples = 1\nvalue = [1, 0]"] ;
351 -> 353 ;
354 [label="gini = 0.0\nsamples = 3\nvalue = [3, 0]"] ;
350 -> 354 ;
355 [label="gini = 0.0\nsamples = 46\nvalue = [46, 0]"] ;
319 -> 355 ;
356 [label="X[6] <= 63.023\ngini = 0.43\nsamples = 16\nvalue = [11, 5]"] ;
216 -> 356 ;
357 [label="X[3] <= 30.0\ngini = 0.408\nsamples = 7\nvalue = [2, 5]"] ;
356 -> 357 ;
358 [label="X[0] <= 340.0\ngini = 0.48\nsamples = 5\nvalue = [2, 3]"] ;
357 -> 358 ;
359 [label="gini = 0.0\nsamples = 1\nvalue = [1, 0]"] ;
358 -> 359 ;
360 [label="X[0] <= 760.0\ngini = 0.375\nsamples = 4\nvalue = [1, 3]"] ;
358 -> 360 ;
361 [label="gini = 0.0\nsamples = 3\nvalue = [0, 3]"] ;
360 -> 361 ;
362 [label="gini = 0.0\nsamples = 1\nvalue = [1, 0]"] ;
360 -> 362 ;
363 [label="gini = 0.0\nsamples = 2\nvalue = [0, 2]"] ;
357 -> 363 ;
364 [label="gini = 0.0\nsamples = 9\nvalue = [9, 0]"] ;
356 -> 364 ;
}
